[
  {
    "record_id": "rec_55876840",
    "record_name": "#1",
    "saved_at": "2026-06-27T15:17:34.214042+00:00",
    "group_id": "8",
    "username": "wuwrh",
    "layer_sizes": [
      6,
      6,
      4
    ],
    "weights": [
      [
        0.7334469357364607,
        0.3254591859325791,
        3.218952593502936,
        0.5439246186403397,
        -0.09645220504887607,
        1.0154868254926133,
        0.4039026654260798,
        0.10361564796913036,
        -0.12237330686148537,
        0.315536519695658,
        -0.6226779081259963,
        0.10876680819365848,
        -0.56672004802649,
        0.7173909595600534,
        -0.019437744928028494,
        0.09151373187178746,
        -0.1486715569527942,
        -0.509590105178806,
        -0.5279451187057063,
        0.054905834747187396,
        0.8912358660499987,
        -0.6249621470615401,
        -0.6849092730868285,
        4.780576492878555,
        -0.32242192869451264,
        -0.27841278364550526,
        -0.9996622379100876,
        -2.2900113490417198,
        -0.6184849924456809,
        0.7772812974447648,
        0.15174980876302846,
        1.0591006540071937,
        -0.7383306753204356,
        -0.20114072210256065,
        -0.3465743723629233,
        -1.032711649117405
      ],
      [
        0.3434404871244118,
        0.06531679617861164,
        -0.16075637534955667,
        -0.9723131442967035,
        -0.4200830981458887,
        -0.0208215586290715,
        -3.809947609316796,
        1.1498940055992195,
        -0.6020755550212893,
        0.056526093379458714,
        0.728687540762109,
        0.042449435422604556,
        0.4046996439519486,
        -1.6647078724266235,
        1.519028356207023,
        0.12234430869681277,
        0.20125942337761824,
        -0.8700273788034381,
        -0.04877269099142467,
        0.18632404888534831,
        1.3243458744225074,
        1.2788582164516413,
        -0.2699034416674552,
        -0.23334434250568079
      ]
    ],
    "biases": [
      [
        -0.0007657793100939628,
        -1.7240857424999205,
        -1.1983039444239725,
        -0.02741923742102933,
        0.11700853482905922,
        0.7196949955491827
      ],
      [
        0.03708147263617881,
        -0.0017139375158513673,
        -0.0053142696673713,
        0.004418215354583888
      ]
    ],
    "fitness_config": {
      "weights": {
        "progress_score": 65,
        "speed_score": 50,
        "completion_bonus": 50,
        "smooth_control": 50,
        "checkpoint_reward": 50,
        "collision_penalty": 50,
        "spin_penalty": 50,
        "stagnation_penalty": 50,
        "reverse_penalty": 50,
        "time_penalty": 50
      }
    },
    "map_difficulty": 1
  },
  {
    "record_id": "rec_acc1c012",
    "record_name": "\u53ef\u4ee5\u6253",
    "saved_at": "2026-06-27T16:47:22.418922+00:00",
    "group_id": "8",
    "username": "wuwrh",
    "layer_sizes": [
      6,
      6,
      4
    ],
    "weights": [
      [
        -0.4802389655109523,
        0.6158176597913898,
        1.2143031986214092,
        -0.0317960270490939,
        0.1631664430852318,
        -0.9645330663655725,
        -2.6397140877213565,
        -0.38164588260568805,
        -0.20197334430320452,
        1.1527657582605833,
        -0.6276900456113339,
        0.17251041898807212,
        -0.12585927050466272,
        0.4591693478414276,
        0.7147999231135679,
        0.16110494371556672,
        0.3717847343000798,
        0.1999184677850208,
        -0.35499771284853926,
        -0.7033952270392924,
        -0.36301854682291235,
        2.8057575536932147,
        1.1677248067936,
        -0.5131805093411524,
        -0.5624039025661159,
        -0.008941595117925688,
        -1.6448575923078255,
        -1.6591928805340463,
        1.894791629973148,
        0.25065456535897856,
        -0.20085334968881852,
        0.07808812032788785,
        0.42023474542590467,
        3.36069087634013,
        -0.8576893943993738,
        -0.19477375917531614
      ],
      [
        -0.7300422112213845,
        -1.063510334989584,
        0.478869994772518,
        0.2858851466224266,
        -0.27155710573208985,
        0.40528185880780043,
        1.4153845572814288,
        -1.1499239277387396,
        -0.8747467815744306,
        -0.4627079570435405,
        1.0972704039968193,
        1.562896311410087,
        0.15864541338474286,
        -1.2919631578513004,
        -0.839358339318733,
        1.9061471476175067,
        0.3901014046480765,
        -0.42703938493512145,
        0.25416519384259567,
        -0.5344138170064016,
        0.19539410524512862,
        -0.3096147687091651,
        0.7194789043830846,
        0.2840865744448751
      ]
    ],
    "biases": [
      [
        3.1698793349268213,
        -0.5116694876565064,
        -0.35374740151184114,
        0.2910544892243234,
        0.12310505453288827,
        0.7620953221075194
      ],
      [
        0.04391667865447317,
        -2.7954022703484696,
        -0.2617712218099562,
        1.3101773329612352
      ]
    ],
    "fitness_config": {
      "weights": {
        "progress_score": 50,
        "speed_score": 50,
        "completion_bonus": 50,
        "smooth_control": 50,
        "checkpoint_reward": 50,
        "collision_penalty": 50,
        "spin_penalty": 50,
        "stagnation_penalty": 50,
        "reverse_penalty": 50,
        "time_penalty": 50
      }
    },
    "map_difficulty": 3
  },
  {
    "record_id": "rec_ee27650d",
    "record_name": "gffgdblkargm ;ofjq;oe",
    "saved_at": "2026-06-28T13:50:47.828853+00:00",
    "group_id": "8",
    "username": "wuwrh",
    "layer_sizes": [
      6,
      6,
      4
    ],
    "weights": [
      [
        1.0863842393069698,
        -0.2616218245908665,
        0.2728426330636463,
        1.0742552584873022,
        -0.010773386619781092,
        -0.14243811533124534,
        0.06182674287947127,
        -0.2281092083786549,
        -0.10832216730254111,
        -0.08714774477898554,
        -0.21306841001731883,
        0.6123792393737425,
        -2.222831041431638,
        0.662983442814774,
        0.12597121990568252,
        0.5246288448252744,
        0.039544290014855564,
        -0.058505198261225876,
        0.7150114541428155,
        1.0263578192495615,
        -0.10451503927855293,
        -0.907397999037522,
        -0.3668120911019835,
        0.04989474391968862,
        -0.1940313731461616,
        0.2504482699838756,
        -1.0238386265782726,
        -4.932957612874625,
        1.4142932062611508,
        -1.1797748599059863,
        -0.4702530124862198,
        1.936953024861604,
        2.085459440815445,
        -0.776309618648954,
        1.25983240035639,
        -0.17132199794920258
      ],
      [
        1.342966766889551,
        -0.45168437368196523,
        -0.22896485209817932,
        0.8858284315579065,
        -0.7260296597230322,
        0.6362515566369276,
        -1.0683251911191256,
        0.47155659291156615,
        -0.016558719879111835,
        0.16609088818519807,
        0.014133741718284456,
        -0.32523903870441573,
        0.4271491087896828,
        -1.2095706285790273,
        0.21842419266073348,
        -1.9209434078987444,
        0.2264737982887409,
        -0.7073944786714521,
        -1.3385114886009453,
        -0.00907752992790246,
        0.07058097953721555,
        1.294098521063592,
        -0.2038237032103459,
        -1.2540116831375436
      ]
    ],
    "biases": [
      [
        0.6975056080502715,
        0.6587969766265327,
        0.16390929651979758,
        0.06912813831440721,
        -0.01961921994076041,
        0.20254204890346153
      ],
      [
        0.4603387690773631,
        0.112032473862848,
        -0.03329638056589175,
        0.47157441144979656
      ]
    ],
    "fitness_config": {
      "weights": {
        "progress_score": 79,
        "speed_score": 50,
        "completion_bonus": 50,
        "smooth_control": 50,
        "checkpoint_reward": 29,
        "collision_penalty": 50,
        "spin_penalty": 50,
        "stagnation_penalty": 50,
        "reverse_penalty": 74,
        "time_penalty": 50
      }
    },
    "map_difficulty": 2
  }
]