[
  {
    "record_id": "rec_9ac0815d",
    "record_name": "baseline",
    "saved_at": "2026-06-28T18:23:12.877797+00:00",
    "group_id": "2",
    "username": "asdf",
    "layer_sizes": [
      6,
      6,
      4
    ],
    "parent_a_weights": [
      [
        -0.08284000022901211,
        -0.7266339915713382,
        -0.06270686210748781,
        0.8517475234424311,
        -3.1814629261063163,
        2.2285172624070646,
        1.666550097359139,
        0.676305480221106,
        1.7080209820900836,
        0.7310176284412266,
        1.9207425370081432,
        0.23007136550860044,
        -1.5922777721745625,
        -0.11624496227435957,
        -0.3857533996657332,
        -0.0932489109877559,
        0.5914437900689171,
        -0.4347570192480138,
        -1.1881632773284194,
        -0.04271071857124225,
        0.407181443889145,
        0.2263604553629158,
        0.9188323271830513,
        3.1637565017036215,
        0.9606604953470131,
        0.14064141563529522,
        -0.5690123265771624,
        1.2054540098154316,
        -3.2346747982072523,
        0.26650185845827923,
        -1.0727762406292105,
        3.5678843570095906,
        -1.0334006706054473,
        -0.619465496242864,
        -0.12101312321569724,
        0.8434027437784438
      ],
      [
        1.7653549754880746,
        0.48186199375621497,
        0.28717356166440833,
        -2.553109289593557,
        1.357153045664979,
        -0.35335203883280714,
        0.9959374387189581,
        -0.19077495129549524,
        1.6579479418905687,
        -0.026958649775543735,
        0.5789806954460339,
        -0.1567240012263032,
        -0.04835909894404838,
        1.0204688643927005,
        0.25371449526796236,
        0.26300557359026816,
        -0.938993983832644,
        -2.721175052243402,
        -1.0313606363272616,
        1.480375232979346,
        -0.7069473987219421,
        -2.4168536307437254,
        0.4841538484338646,
        0.4450282244530336
      ]
    ],
    "parent_a_biases": [
      [
        -0.0973283131599097,
        -0.35517141874010194,
        0.7047273220499559,
        -1.9817204695742343,
        1.0425367605614795,
        -0.5645851021781897
      ],
      [
        0.010777500845944208,
        -0.49390978456878964,
        0.29768959270429096,
        0.5929867497408488
      ]
    ],
    "parent_b_weights": [
      [
        -0.10789122976289622,
        -1.0323687189801989,
        -0.058098275292110355,
        1.1265143440646825,
        -2.891324466411055,
        2.3474271522732058,
        1.1659306432841976,
        0.5996777937653226,
        1.9677359806662436,
        0.46595833023815375,
        0.9048203716626168,
        0.22238166427078407,
        -1.180713597030607,
        -0.10502179845484304,
        -0.5189911605395772,
        -0.1556949533174053,
        1.1059652948682774,
        -0.5531872552652786,
        -1.203359943247667,
        -0.03704152284527712,
        0.4739708829905539,
        0.17755546992879104,
        0.943268374501277,
        2.843982077052911,
        0.9084093410076514,
        0.09101925613099746,
        -1.003388070668443,
        1.8430107377497245,
        -5.29501182592569,
        0.35902010802814266,
        -0.6909324140326322,
        3.6861128537870593,
        -1.419659850247366,
        -1.0274835291967677,
        -0.1733948086224591,
        0.6451481852423033
      ],
      [
        1.7015378460654005,
        0.8047463063932131,
        0.1738965812369851,
        -2.627508490531402,
        1.0975733126763934,
        -0.5745820864509278,
        1.045783786436816,
        -0.13108802948164636,
        1.3134847138212125,
        -0.03747605683937153,
        0.5150239163648268,
        -0.12612605766789617,
        -0.07510580602630913,
        1.2595490098346636,
        0.3086238575504023,
        0.33566656272128975,
        -0.752203468402469,
        -2.054587359166267,
        -1.5959129783580759,
        1.6478325362922857,
        -0.6178118773588799,
        -2.835890778648432,
        0.6139985189423884,
        0.6869235137985042
      ]
    ],
    "parent_b_biases": [
      [
        -0.07138678594179253,
        -0.38955641855181333,
        0.40588179409227393,
        -0.47784162829431726,
        1.0606480198710484,
        -1.3000908884078959
      ],
      [
        0.008347896134694829,
        -1.5047381418500108,
        0.2569384913899706,
        0.7449416160239477
      ]
    ],
    "fitness_config": {
      "weights": {
        "speed": 25,
        "progress": 10,
        "centered": 35,
        "alignment": 40,
        "safety": 25,
        "stall": 20,
        "spin": 15,
        "wrong_way": 40,
        "time": 5,
        "crash": 50
      }
    },
    "map_difficulty": 2
  },
  {
    "record_id": "rec_fa57564d",
    "record_name": "baseline_2",
    "saved_at": "2026-06-28T18:37:21.407475+00:00",
    "group_id": "2",
    "username": "asdf",
    "layer_sizes": [
      6,
      6,
      4
    ],
    "parent_a_weights": [
      [
        -0.08284000022901211,
        -0.7266339915713382,
        -0.06270686210748781,
        0.8517475234424311,
        -3.1814629261063163,
        2.2285172624070646,
        1.666550097359139,
        0.676305480221106,
        1.7080209820900836,
        0.7310176284412266,
        1.9207425370081432,
        0.23007136550860044,
        -1.5922777721745625,
        -0.11624496227435957,
        -0.3857533996657332,
        -0.0932489109877559,
        0.5914437900689171,
        -0.4347570192480138,
        -1.1881632773284194,
        -0.04271071857124225,
        0.407181443889145,
        0.2263604553629158,
        0.9188323271830513,
        3.1637565017036215,
        0.9606604953470131,
        0.14064141563529522,
        -0.5690123265771624,
        1.2054540098154316,
        -3.2346747982072523,
        0.26650185845827923,
        -1.0727762406292105,
        3.5678843570095906,
        -1.0334006706054473,
        -0.619465496242864,
        -0.12101312321569724,
        0.8434027437784438
      ],
      [
        1.7653549754880746,
        0.48186199375621497,
        0.28717356166440833,
        -2.553109289593557,
        1.357153045664979,
        -0.35335203883280714,
        0.9959374387189581,
        -0.19077495129549524,
        1.6579479418905687,
        -0.026958649775543735,
        0.5789806954460339,
        -0.1567240012263032,
        -0.04835909894404838,
        1.0204688643927005,
        0.25371449526796236,
        0.26300557359026816,
        -0.938993983832644,
        -2.721175052243402,
        -1.0313606363272616,
        1.480375232979346,
        -0.7069473987219421,
        -2.4168536307437254,
        0.4841538484338646,
        0.4450282244530336
      ]
    ],
    "parent_a_biases": [
      [
        -0.0973283131599097,
        -0.35517141874010194,
        0.7047273220499559,
        -1.9817204695742343,
        1.0425367605614795,
        -0.5645851021781897
      ],
      [
        0.010777500845944208,
        -0.49390978456878964,
        0.29768959270429096,
        0.5929867497408488
      ]
    ],
    "parent_b_weights": [
      [
        -0.10086041472610785,
        -1.15547518983855,
        -0.06893445954733386,
        0.9032288772882087,
        -2.697542473756118,
        2.677607101476279,
        1.2417044887415702,
        0.7020493554002756,
        2.5844385643926455,
        0.6022166651332995,
        1.298649821470897,
        0.26995369325562885,
        -1.2284032742710682,
        -0.10796292360037098,
        -0.38967491826571354,
        -0.10151584637946383,
        0.9302573476349943,
        -0.6262470758286632,
        -1.260758208104987,
        -0.040406838605780364,
        0.47161081754402107,
        0.2906901582072003,
        0.9404670742242618,
        2.297829537919485,
        0.8444422833001628,
        0.1455210510236755,
        -0.9717931053105698,
        1.6009719023505617,
        -6.127181863160219,
        0.3200719562101072,
        -0.589128782680591,
        2.979648144963031,
        -1.2211197611056854,
        -0.7811712143032793,
        -0.1788808515679697,
        0.5769373212736003
      ],
      [
        1.801332277454911,
        0.6942013789547727,
        0.25791976757245966,
        -2.795688177466958,
        1.1742955243361939,
        -0.3478775225086609,
        0.9776556665625372,
        -0.13355298960010756,
        1.1784258340548575,
        -0.03702699407688483,
        0.4931701380577667,
        -0.13580908525162794,
        -0.06033878287311146,
        1.0787161826834206,
        0.25710277725457414,
        0.2776706141587367,
        -0.8649033983872765,
        -2.6756127148908138,
        -1.3021760888694391,
        1.6619734485782698,
        -0.5787527501827712,
        -3.097839671601893,
        0.5761242988016773,
        0.5968072395427059
      ]
    ],
    "parent_b_biases": [
      [
        -0.06999760813602982,
        -0.40695004559502534,
        0.7886655147020358,
        -0.9776269167634631,
        0.7013209540818807,
        -0.9040776934607686
      ],
      [
        0.039829006979032446,
        -0.5871385211871065,
        0.2564442778191481,
        0.9529174176590371
      ]
    ],
    "fitness_config": {
      "weights": {
        "speed": 25,
        "progress": 10,
        "centered": 35,
        "alignment": 40,
        "safety": 25,
        "stall": 20,
        "spin": 15,
        "wrong_way": 40,
        "time": 5,
        "crash": 50
      }
    },
    "map_difficulty": 2
  }
]