[
  {
    "record_id": "rec_55876840",
    "record_name": "#1",
    "saved_at": "2026-06-27T15:17:34.214042+00:00",
    "group_id": "8",
    "username": "wuwrh",
    "layer_sizes": [
      6,
      6,
      4
    ],
    "weights": [
      [
        0.7334469357364607,
        0.3254591859325791,
        3.218952593502936,
        0.5439246186403397,
        -0.09645220504887607,
        1.0154868254926133,
        0.4039026654260798,
        0.10361564796913036,
        -0.12237330686148537,
        0.315536519695658,
        -0.6226779081259963,
        0.10876680819365848,
        -0.56672004802649,
        0.7173909595600534,
        -0.019437744928028494,
        0.09151373187178746,
        -0.1486715569527942,
        -0.509590105178806,
        -0.5279451187057063,
        0.054905834747187396,
        0.8912358660499987,
        -0.6249621470615401,
        -0.6849092730868285,
        4.780576492878555,
        -0.32242192869451264,
        -0.27841278364550526,
        -0.9996622379100876,
        -2.2900113490417198,
        -0.6184849924456809,
        0.7772812974447648,
        0.15174980876302846,
        1.0591006540071937,
        -0.7383306753204356,
        -0.20114072210256065,
        -0.3465743723629233,
        -1.032711649117405
      ],
      [
        0.3434404871244118,
        0.06531679617861164,
        -0.16075637534955667,
        -0.9723131442967035,
        -0.4200830981458887,
        -0.0208215586290715,
        -3.809947609316796,
        1.1498940055992195,
        -0.6020755550212893,
        0.056526093379458714,
        0.728687540762109,
        0.042449435422604556,
        0.4046996439519486,
        -1.6647078724266235,
        1.519028356207023,
        0.12234430869681277,
        0.20125942337761824,
        -0.8700273788034381,
        -0.04877269099142467,
        0.18632404888534831,
        1.3243458744225074,
        1.2788582164516413,
        -0.2699034416674552,
        -0.23334434250568079
      ]
    ],
    "biases": [
      [
        -0.0007657793100939628,
        -1.7240857424999205,
        -1.1983039444239725,
        -0.02741923742102933,
        0.11700853482905922,
        0.7196949955491827
      ],
      [
        0.03708147263617881,
        -0.0017139375158513673,
        -0.0053142696673713,
        0.004418215354583888
      ]
    ],
    "fitness_config": {
      "weights": {
        "progress_score": 65,
        "speed_score": 50,
        "completion_bonus": 50,
        "smooth_control": 50,
        "checkpoint_reward": 50,
        "collision_penalty": 50,
        "spin_penalty": 50,
        "stagnation_penalty": 50,
        "reverse_penalty": 50,
        "time_penalty": 50
      }
    },
    "map_difficulty": 1
  },
  {
    "record_id": "rec_acc1c012",
    "record_name": "\u53ef\u4ee5\u6253",
    "saved_at": "2026-06-27T16:47:22.418922+00:00",
    "group_id": "8",
    "username": "wuwrh",
    "layer_sizes": [
      6,
      6,
      4
    ],
    "weights": [
      [
        -0.4802389655109523,
        0.6158176597913898,
        1.2143031986214092,
        -0.0317960270490939,
        0.1631664430852318,
        -0.9645330663655725,
        -2.6397140877213565,
        -0.38164588260568805,
        -0.20197334430320452,
        1.1527657582605833,
        -0.6276900456113339,
        0.17251041898807212,
        -0.12585927050466272,
        0.4591693478414276,
        0.7147999231135679,
        0.16110494371556672,
        0.3717847343000798,
        0.1999184677850208,
        -0.35499771284853926,
        -0.7033952270392924,
        -0.36301854682291235,
        2.8057575536932147,
        1.1677248067936,
        -0.5131805093411524,
        -0.5624039025661159,
        -0.008941595117925688,
        -1.6448575923078255,
        -1.6591928805340463,
        1.894791629973148,
        0.25065456535897856,
        -0.20085334968881852,
        0.07808812032788785,
        0.42023474542590467,
        3.36069087634013,
        -0.8576893943993738,
        -0.19477375917531614
      ],
      [
        -0.7300422112213845,
        -1.063510334989584,
        0.478869994772518,
        0.2858851466224266,
        -0.27155710573208985,
        0.40528185880780043,
        1.4153845572814288,
        -1.1499239277387396,
        -0.8747467815744306,
        -0.4627079570435405,
        1.0972704039968193,
        1.562896311410087,
        0.15864541338474286,
        -1.2919631578513004,
        -0.839358339318733,
        1.9061471476175067,
        0.3901014046480765,
        -0.42703938493512145,
        0.25416519384259567,
        -0.5344138170064016,
        0.19539410524512862,
        -0.3096147687091651,
        0.7194789043830846,
        0.2840865744448751
      ]
    ],
    "biases": [
      [
        3.1698793349268213,
        -0.5116694876565064,
        -0.35374740151184114,
        0.2910544892243234,
        0.12310505453288827,
        0.7620953221075194
      ],
      [
        0.04391667865447317,
        -2.7954022703484696,
        -0.2617712218099562,
        1.3101773329612352
      ]
    ],
    "fitness_config": {
      "weights": {
        "progress_score": 50,
        "speed_score": 50,
        "completion_bonus": 50,
        "smooth_control": 50,
        "checkpoint_reward": 50,
        "collision_penalty": 50,
        "spin_penalty": 50,
        "stagnation_penalty": 50,
        "reverse_penalty": 50,
        "time_penalty": 50
      }
    },
    "map_difficulty": 3
  },
  {
    "record_id": "rec_ee27650d",
    "record_name": "gffgdblkargm ;ofjq;oe",
    "saved_at": "2026-06-28T13:50:47.828853+00:00",
    "group_id": "8",
    "username": "wuwrh",
    "layer_sizes": [
      6,
      6,
      4
    ],
    "weights": [
      [
        1.0863842393069698,
        -0.2616218245908665,
        0.2728426330636463,
        1.0742552584873022,
        -0.010773386619781092,
        -0.14243811533124534,
        0.06182674287947127,
        -0.2281092083786549,
        -0.10832216730254111,
        -0.08714774477898554,
        -0.21306841001731883,
        0.6123792393737425,
        -2.222831041431638,
        0.662983442814774,
        0.12597121990568252,
        0.5246288448252744,
        0.039544290014855564,
        -0.058505198261225876,
        0.7150114541428155,
        1.0263578192495615,
        -0.10451503927855293,
        -0.907397999037522,
        -0.3668120911019835,
        0.04989474391968862,
        -0.1940313731461616,
        0.2504482699838756,
        -1.0238386265782726,
        -4.932957612874625,
        1.4142932062611508,
        -1.1797748599059863,
        -0.4702530124862198,
        1.936953024861604,
        2.085459440815445,
        -0.776309618648954,
        1.25983240035639,
        -0.17132199794920258
      ],
      [
        1.342966766889551,
        -0.45168437368196523,
        -0.22896485209817932,
        0.8858284315579065,
        -0.7260296597230322,
        0.6362515566369276,
        -1.0683251911191256,
        0.47155659291156615,
        -0.016558719879111835,
        0.16609088818519807,
        0.014133741718284456,
        -0.32523903870441573,
        0.4271491087896828,
        -1.2095706285790273,
        0.21842419266073348,
        -1.9209434078987444,
        0.2264737982887409,
        -0.7073944786714521,
        -1.3385114886009453,
        -0.00907752992790246,
        0.07058097953721555,
        1.294098521063592,
        -0.2038237032103459,
        -1.2540116831375436
      ]
    ],
    "biases": [
      [
        0.6975056080502715,
        0.6587969766265327,
        0.16390929651979758,
        0.06912813831440721,
        -0.01961921994076041,
        0.20254204890346153
      ],
      [
        0.4603387690773631,
        0.112032473862848,
        -0.03329638056589175,
        0.47157441144979656
      ]
    ],
    "fitness_config": {
      "weights": {
        "progress_score": 79,
        "speed_score": 50,
        "completion_bonus": 50,
        "smooth_control": 50,
        "checkpoint_reward": 29,
        "collision_penalty": 50,
        "spin_penalty": 50,
        "stagnation_penalty": 50,
        "reverse_penalty": 74,
        "time_penalty": 50
      }
    },
    "map_difficulty": 2
  },
  {
    "record_id": "rec_09763a50",
    "record_name": "\u82b1\u54c7\u54c7\u54c7",
    "saved_at": "2026-06-28T15:09:31.445158+00:00",
    "group_id": "8",
    "username": "wuwrh",
    "layer_sizes": [
      6,
      6,
      4
    ],
    "weights": [
      [
        -0.3282974329163451,
        0.5419656910075878,
        3.6729664767009846,
        -0.5080850983496102,
        0.29961571561330064,
        -0.09394672850558648,
        -0.29325806128473675,
        0.1381531038633274,
        -0.1856733290967371,
        -0.5113339865638139,
        1.1290166305595435,
        0.5361586815033051,
        -0.16292485694899542,
        0.4167658882648865,
        0.4573159516963262,
        0.7833453322358169,
        0.012210958468091821,
        0.1184951940179237,
        0.31150965249088525,
        0.5637487589954319,
        0.4612366224602903,
        -0.038864523748277806,
        0.48171978575487945,
        0.0668792608510303,
        0.35921899733680984,
        0.4837274135981574,
        1.3375894517998281,
        0.13505727969537717,
        -1.2155661612125421,
        1.1352137345639068,
        1.1951301529959961,
        -0.2435026447953143,
        0.222851395128224,
        -1.1117448460568518,
        -0.007002437764585653,
        -1.3517206486550657
      ],
      [
        -1.0983194585412694,
        0.130664558409175,
        0.8500263886153496,
        -0.04402089410520059,
        -0.5493128127121429,
        0.9293404754748662,
        -0.7129796499026698,
        1.5342796744395029,
        -1.3300242904289408,
        -1.496286753171501,
        0.49394277332794473,
        1.0806543778168887,
        1.0998981747928538,
        0.9149250427124802,
        0.5561809348432551,
        -0.5394401600124205,
        -0.9497062631767121,
        -1.2840362649201136,
        -0.29289578564420793,
        1.4891832129128246,
        0.9295314657325265,
        -0.8495864210051247,
        -0.11140137357318412,
        -0.7907344940290151
      ]
    ],
    "biases": [
      [
        3.039850059249343,
        0.43469465095322646,
        0.00042654508091865336,
        -0.3981683811513828,
        0.2354455212672295,
        0.5715887557795949
      ],
      [
        0.22738417793996313,
        -2.3954828325251767,
        -0.8787198041796889,
        0.9234504972834344
      ]
    ],
    "fitness_config": {
      "weights": {
        "progress_score": 72,
        "speed_score": 50,
        "completion_bonus": 50,
        "smooth_control": 37,
        "checkpoint_reward": 37,
        "collision_penalty": 50,
        "spin_penalty": 50,
        "stagnation_penalty": 50,
        "reverse_penalty": 50,
        "time_penalty": 50
      }
    },
    "map_difficulty": 3
  },
  {
    "record_id": "rec_7ba24a5b",
    "record_name": "test",
    "saved_at": "2026-06-28T15:23:14.169675+00:00",
    "group_id": "8",
    "username": "wuwrh",
    "layer_sizes": [
      6,
      6,
      4
    ],
    "weights": [
      [
        0.9765263669373252,
        -0.6367914846125671,
        1.7403068090311413,
        -0.1042704947932567,
        1.001623640198861,
        0.0531664933776382,
        -0.6920948150134723,
        -0.054462455548557324,
        0.2433707242626918,
        -0.35142954720085157,
        -0.3695185561549247,
        -1.3219178907386793,
        0.9893102894953795,
        0.41977833806210085,
        0.2925197205691002,
        -0.7610952128016145,
        -0.8400602314892642,
        0.23299302369201316,
        -0.13844244199195296,
        0.21830641591282138,
        0.42598829502342206,
        -0.8322574792199978,
        0.6115208476163991,
        -0.4957903134432466,
        0.2414981804827634,
        -1.4828954601060866,
        -0.16896222123997798,
        0.15770818154024763,
        -0.19338216180891443,
        0.34472540628342996,
        -0.4356222668290376,
        0.6982516472536936,
        0.07684454178934536,
        -1.493401484345883,
        -3.586235421822613,
        1.3153953458336056
      ],
      [
        0.614234239926164,
        -0.5582576581974356,
        0.7606480950473776,
        -0.3106336506154635,
        0.14368794170339255,
        -0.022630476424780912,
        -0.23255782211598186,
        -1.3026346952984842,
        -0.25547519503777383,
        1.8441084842179225,
        1.0332643185664836,
        -1.1778126942075229,
        -0.549971187667729,
        -0.03161724446039902,
        -0.7942539611222873,
        -1.8199882221947197,
        -0.7764409892296242,
        0.3107035530686114,
        1.4827205730892743,
        -1.8126819872716606,
        -0.4968229280051549,
        -0.2845670046908306,
        -0.3135418026481707,
        0.44373015816136907
      ]
    ],
    "biases": [
      [
        0.15868654286118503,
        3.8185501122800516,
        -3.967197313486596,
        0.18094965968342108,
        0.23492989081243168,
        1.4122042926197313
      ],
      [
        -0.1019958248028936,
        -1.329707272766324,
        2.2297421834061204,
        0.14596614264385985
      ]
    ],
    "fitness_config": {
      "weights": {
        "progress_score": 50,
        "speed_score": 50,
        "completion_bonus": 50,
        "smooth_control": 50,
        "checkpoint_reward": 50,
        "collision_penalty": 50,
        "spin_penalty": 50,
        "stagnation_penalty": 50,
        "reverse_penalty": 50,
        "time_penalty": 50
      }
    },
    "map_difficulty": 1
  },
  {
    "record_id": "rec_d92d9c24",
    "record_name": "test2",
    "saved_at": "2026-06-28T15:24:48.804160+00:00",
    "group_id": "8",
    "username": "wuwrh",
    "layer_sizes": [
      6,
      6,
      4
    ],
    "weights": [
      [
        0.01109151211853041,
        -0.22809971086521524,
        1.249245189476234,
        1.3454228914807396,
        -0.4824443538870882,
        1.2454388032826729,
        -1.7898017956865966,
        -0.7127409216030612,
        0.026409388801290935,
        0.22942960073621538,
        0.32438631347037905,
        0.06364037212857597,
        -0.3334874801347706,
        -1.0278914640680945,
        1.0097476072742853,
        -0.057380832173355004,
        3.407985245376649,
        0.3709957332755564,
        -0.34255776070657495,
        -0.3257765227080148,
        -0.6270633092125388,
        -1.0118213920651193,
        -0.8453319108687013,
        1.9099123856389497,
        -1.7511759989855624,
        1.7239675221366346,
        0.8170841265271528,
        -5.292485986175778,
        -0.7727383380770098,
        -1.5317554408387635,
        -0.03821962995740761,
        -0.9645124104036691,
        1.7054419296584677,
        -1.117365211345516,
        -0.13617441876469205,
        0.1702548764624774
      ],
      [
        0.5838062774846434,
        -0.4533886483430232,
        1.0613634372139351,
        3.3261992530360596,
        0.728608198619898,
        1.126212336765054,
        -0.447617765955836,
        0.5642638480137789,
        -0.9256708959730184,
        0.3140208934566941,
        1.0653135925746382,
        -0.24229812641247395,
        -0.9323677514726065,
        0.08756239588674525,
        -1.3445195865067034,
        -0.3155524212472937,
        0.33585058108452254,
        -0.41708077701473617,
        0.046501992031417604,
        -0.3331737910154287,
        -0.5375772667840107,
        0.32154375397494067,
        0.01127832151799435,
        -0.3280929671976857
      ]
    ],
    "biases": [
      [
        0.06718013410911494,
        -0.39662774447161586,
        0.07399846297139623,
        0.8752112119452632,
        0.06704188347107572,
        -0.06815155534966602
      ],
      [
        1.4104933550754064,
        -0.1499948952055482,
        2.062123559910398,
        0.7089693158583774
      ]
    ],
    "fitness_config": {
      "weights": {
        "progress_score": 50,
        "speed_score": 50,
        "completion_bonus": 50,
        "smooth_control": 50,
        "checkpoint_reward": 50,
        "collision_penalty": 50,
        "spin_penalty": 50,
        "stagnation_penalty": 50,
        "reverse_penalty": 50,
        "time_penalty": 50
      }
    },
    "map_difficulty": 2
  },
  {
    "record_id": "rec_cacd2a2e",
    "record_name": "test3",
    "saved_at": "2026-06-28T15:25:05.207943+00:00",
    "group_id": "8",
    "username": "wuwrh",
    "layer_sizes": [
      6,
      6,
      4
    ],
    "weights": [
      [
        0.2889979694864718,
        -1.0791268140592947,
        -0.4183291677673696,
        -0.39064570531091963,
        -0.7999529246196438,
        0.5291963408268141,
        0.01231177345388774,
        1.7000644004224925,
        0.11682555005673909,
        -0.7134414288228219,
        -1.3380566413513701,
        1.423029483966803,
        -0.6131788788031292,
        0.14629763457031966,
        -1.8570745819779844,
        0.22633797796430852,
        -0.4961650563021168,
        -0.20363665199149714,
        -0.4787335812350361,
        0.9533302540305325,
        0.5959048404399787,
        2.225244009427867,
        -1.7547052430593226,
        1.236739001725011,
        -1.3613363829613687,
        -2.71705678690261,
        0.555021367809683,
        -0.36068328522899284,
        0.734940576129203,
        -0.26800904902489064,
        -1.093065143112757,
        -0.895344025903854,
        -1.2034097317795969,
        -0.693301667209608,
        -1.903042643539125,
        0.40580434336197024
      ],
      [
        1.7366055923708938,
        1.4791915261263289,
        1.8604929484957884,
        0.9089733428146614,
        -0.7885561820577001,
        0.7507100936205333,
        -0.754834004721379,
        -1.0055267756797828,
        0.3350094270285439,
        -0.48086973445673875,
        -0.018464113236901968,
        0.12475912687400965,
        0.7770747268830622,
        0.1212816099584574,
        0.06484267144585236,
        1.6737676124197265,
        -1.0810817549302878,
        -0.410438506120541,
        -0.9106988375309453,
        0.8232089810745126,
        -0.5320283882594316,
        1.2705029595292527,
        -1.3142329292673915,
        -0.35807187446654987
      ]
    ],
    "biases": [
      [
        -0.1740614884784796,
        0.3682035197049275,
        -0.1548967971233548,
        -0.40451238304437986,
        -1.2769797004304633,
        0.35405003872280794
      ],
      [
        0.6697112558899561,
        0.3913049012530276,
        0.7629730406353189,
        1.0417424372511281
      ]
    ],
    "fitness_config": {
      "weights": {
        "progress_score": 50,
        "speed_score": 50,
        "completion_bonus": 50,
        "smooth_control": 50,
        "checkpoint_reward": 50,
        "collision_penalty": 50,
        "spin_penalty": 50,
        "stagnation_penalty": 50,
        "reverse_penalty": 50,
        "time_penalty": 50
      }
    },
    "map_difficulty": 1
  },
  {
    "record_id": "rec_05dd40c3",
    "record_name": "hojio",
    "saved_at": "2026-06-28T15:25:18.761033+00:00",
    "group_id": "8",
    "username": "wuwrh",
    "layer_sizes": [
      6,
      6,
      4
    ],
    "weights": [
      [
        0.4921442275913286,
        -0.8856632123541377,
        -0.38107008061958403,
        2.4737292930013135,
        -0.12495169557477709,
        -1.5054997492506192,
        -1.005496100126125,
        0.504354306357939,
        0.6172938339912318,
        0.6453286932544395,
        0.7316788433870206,
        -0.6034145556175544,
        -0.7432224713133657,
        0.9187816416200756,
        -0.16158973426289974,
        -0.5547621648680169,
        -0.17825822409207523,
        0.8224571372528847,
        -0.1549995569635822,
        0.6509293187409332,
        1.1630233553263927,
        0.2825293241593509,
        2.2166582537644413,
        -1.740941185494763,
        0.6384584440298162,
        -1.3201849199781786,
        -0.5856087654270833,
        -0.7924665461373894,
        -0.7120929777239848,
        -0.10228485354347296,
        -0.12514492169158659,
        -0.10382302017013012,
        -1.0445694016628775,
        0.876831142365003,
        0.3249946163591518,
        0.8506869380225283
      ],
      [
        -0.8200217100611579,
        1.0346379670795276,
        1.1505546040101224,
        1.1698545225794414,
        -1.910430219372504,
        -0.5967055610951008,
        -1.4416965155879855,
        0.9923158167457182,
        -0.7016349053294362,
        -2.2929912758649724,
        1.1489277785865049,
        1.0147579006879912,
        0.8172461153363576,
        0.37355766636708126,
        0.6947459578779529,
        1.6594276195591071,
        -1.47640484347342,
        0.1322003162009195,
        1.7556814330046344,
        0.5088362620073034,
        -0.2969251605979427,
        1.0953099290751873,
        0.6923794632615619,
        0.5278432086759527
      ]
    ],
    "biases": [
      [
        -1.4383826334992724,
        1.4906050541171105,
        0.7900049297470756,
        0.377733325299496,
        -1.5822796550712594,
        1.1076679614845573
      ],
      [
        0.45550051409701675,
        -0.10127220518159208,
        -1.6379109806202443,
        0.8617777773462358
      ]
    ],
    "fitness_config": {
      "weights": {
        "progress_score": 50,
        "speed_score": 50,
        "completion_bonus": 50,
        "smooth_control": 50,
        "checkpoint_reward": 50,
        "collision_penalty": 50,
        "spin_penalty": 50,
        "stagnation_penalty": 50,
        "reverse_penalty": 50,
        "time_penalty": 50
      }
    },
    "map_difficulty": 1
  },
  {
    "record_id": "rec_d6355980",
    "record_name": "\u310easd",
    "saved_at": "2026-06-28T15:25:45.606708+00:00",
    "group_id": "8",
    "username": "wuwrh",
    "layer_sizes": [
      6,
      6,
      4
    ],
    "weights": [
      [
        -0.11160090260934662,
        0.7267284780037632,
        0.8948649930965357,
        0.4147951983377425,
        0.16271901268789263,
        1.3014713282963457,
        1.405572212972564,
        -0.04325528507483625,
        0.2602285543358919,
        -0.3123659553205815,
        0.10832977346777314,
        -0.28301875092413215,
        0.9420883448257731,
        0.8142033027706417,
        -1.327468571476867,
        1.4827384894348268,
        -0.19130433014358905,
        -0.60138245387125,
        -1.973963452821749,
        1.1423829186287766,
        -0.2713316911776675,
        -0.556741248258884,
        -0.6560025452018493,
        -0.4144066458615231,
        -0.5165680341495521,
        -1.7714923515549252,
        0.06986599892345645,
        1.975305895908215,
        1.3244095291048592,
        -0.6552784585378282,
        -0.008994859305611743,
        0.12294860823944014,
        -0.450051869544199,
        0.905866968641398,
        -2.2045286433973663,
        2.4707424111893994
      ],
      [
        -0.8248809208955399,
        1.029524097211338,
        1.8430779185402506,
        -0.8854809157131266,
        -0.7051563217478798,
        -1.7382768335409644,
        -1.3791794361426126,
        0.6583825856750875,
        -0.9408396150206877,
        2.157367395461868,
        -1.2688493718008602,
        -0.3357785879672438,
        0.06815155162136051,
        1.4849716101858428,
        -0.5058293235389146,
        1.6911144908224511,
        -0.8930369946136348,
        1.3741596625700911,
        0.5613940449975908,
        -1.4811196251536873,
        0.681570875448758,
        0.1842099800559954,
        2.3180616935969764,
        -0.509714569256191
      ]
    ],
    "biases": [
      [
        0.4171159149913251,
        0.6653406575666846,
        -1.1608106751415603,
        -1.0030794826064768,
        0.7828036270033885,
        1.378445523359831
      ],
      [
        0.6921615591859793,
        -0.8309940411916522,
        0.5637225435132457,
        2.1608504994659223
      ]
    ],
    "fitness_config": {
      "weights": {
        "progress_score": 50,
        "speed_score": 50,
        "completion_bonus": 50,
        "smooth_control": 50,
        "checkpoint_reward": 50,
        "collision_penalty": 50,
        "spin_penalty": 50,
        "stagnation_penalty": 50,
        "reverse_penalty": 50,
        "time_penalty": 50
      }
    },
    "map_difficulty": 1
  },
  {
    "record_id": "rec_a9c0930a",
    "record_name": "jriwgo",
    "saved_at": "2026-06-28T15:25:57.348696+00:00",
    "group_id": "8",
    "username": "wuwrh",
    "layer_sizes": [
      6,
      6,
      4
    ],
    "weights": [
      [
        0.08193900165009492,
        -0.35736955002092297,
        2.0282875537184024,
        -0.9292934646125043,
        -1.315692996122422,
        -0.06475549764562578,
        1.648019547730824,
        -0.9993246289992983,
        0.20588806212800537,
        -0.15613861770887436,
        1.1279414374908612,
        -1.41862318721373,
        -1.4869166721845386,
        -0.1448551324461075,
        0.5985620219836727,
        0.3911647563926345,
        1.1879306029992975,
        1.0411746514198081,
        0.38124570449005807,
        0.4077568859311978,
        -1.0227487421347325,
        1.2095141826483549,
        0.7000523824562107,
        -0.6361137232281501,
        1.0657952425334472,
        -0.22659962234350461,
        1.2598189342450128,
        1.4508831149473032,
        -0.9017170867101327,
        0.16845560558705164,
        0.8793931568122102,
        1.5138503904321445,
        -0.1391041634036805,
        0.03835184525935665,
        -0.7442511254866018,
        0.41461523888891744
      ],
      [
        -0.8028670295673717,
        0.599120158681417,
        0.08959054613355955,
        -0.4387123792725615,
        -0.7459267360080175,
        1.7952045042793947,
        1.7742736492475966,
        0.034039094769954224,
        -0.5426261404732028,
        0.13220288721284623,
        -0.7832309780605899,
        -0.10217217431596384,
        0.2515249186955516,
        0.7573548245712511,
        0.017400577314316688,
        -0.06241739755147552,
        -0.03243608267836185,
        -1.3198501147584059,
        0.32456215806651556,
        0.5724942655613328,
        0.037831949570389115,
        0.1663941880784396,
        -0.6287581472732829,
        -0.18849061040671422
      ]
    ],
    "biases": [
      [
        -0.09740831099227801,
        0.6809488115282734,
        -0.5658808386420251,
        -0.2627137892777871,
        -0.4408346366031297,
        -1.6176328011364705
      ],
      [
        -0.3252729244145834,
        -0.8055292872532919,
        -2.411785437968509,
        -0.36224339066559685
      ]
    ],
    "fitness_config": {
      "weights": {
        "progress_score": 50,
        "speed_score": 50,
        "completion_bonus": 50,
        "smooth_control": 50,
        "checkpoint_reward": 50,
        "collision_penalty": 50,
        "spin_penalty": 50,
        "stagnation_penalty": 50,
        "reverse_penalty": 50,
        "time_penalty": 50
      }
    },
    "map_difficulty": 1
  },
  {
    "record_id": "rec_fbb6258f",
    "record_name": "kaeropg",
    "saved_at": "2026-06-28T15:26:08.178816+00:00",
    "group_id": "8",
    "username": "wuwrh",
    "layer_sizes": [
      6,
      6,
      4
    ],
    "weights": [
      [
        1.6452077286166538,
        -0.39071182416760164,
        -0.6427550008484825,
        0.09102441734764685,
        -1.7168428099904307,
        -0.2875218865908727,
        0.02722611199906248,
        1.629262464958772,
        -1.7676097346785375,
        -0.02648990128127607,
        -1.063311174968578,
        0.6685997895460156,
        -0.651850016590997,
        0.10166521709787828,
        1.148586363908376,
        0.2541534785994909,
        -0.06084878408393218,
        0.4557299607726483,
        0.6687552355796418,
        -0.05639565753766547,
        0.28221525673155656,
        1.0671409623424875,
        0.65818830519645,
        0.16278115105131932,
        -1.530858879338244,
        1.5184572732258277,
        0.4333105865022008,
        1.6988766545820497,
        -1.109805742144095,
        -0.07540429624272774,
        -0.575971283038388,
        -0.7631628534893411,
        -1.7678007820380872,
        1.3073295104067346,
        -0.7219578040913985,
        0.45902810388946824
      ],
      [
        -0.8643622352832672,
        0.8054066480327675,
        1.5592409710795287,
        0.11535394274036437,
        -0.14527662206290423,
        0.5067695220882257,
        -0.7899993349202312,
        0.7631683307123003,
        0.21519184017667534,
        -0.2515366040570666,
        -0.06716481747836862,
        0.47290271075622403,
        2.2520188244476356,
        -1.3883293523032736,
        -0.4842533576880715,
        -0.8264342797993364,
        -1.3405925651014463,
        -0.9838574160261555,
        -2.219633134494268,
        1.6924186286814558,
        0.5659576530900973,
        -1.1625186865483503,
        1.7043782806505803,
        -0.41599957137926274
      ]
    ],
    "biases": [
      [
        0.2794064042718706,
        -2.147918547911429,
        -0.8746707149910782,
        0.5283712063663902,
        0.3616147546136078,
        -0.6085543565285781
      ],
      [
        0.5340788448911178,
        0.20232396172125997,
        -1.0631167887921795,
        -0.7697654654601717
      ]
    ],
    "fitness_config": {
      "weights": {
        "progress_score": 50,
        "speed_score": 50,
        "completion_bonus": 50,
        "smooth_control": 50,
        "checkpoint_reward": 50,
        "collision_penalty": 50,
        "spin_penalty": 50,
        "stagnation_penalty": 50,
        "reverse_penalty": 50,
        "time_penalty": 50
      }
    },
    "map_difficulty": 1
  },
  {
    "record_id": "rec_f4a6527a",
    "record_name": "\u3111\u3128awe",
    "saved_at": "2026-06-28T15:27:14.768926+00:00",
    "group_id": "8",
    "username": "wuwrh",
    "layer_sizes": [
      6,
      6,
      4
    ],
    "weights": [
      [
        1.110643360527563,
        -1.6504454579417651,
        0.11081571262767617,
        0.773486300090973,
        -1.6948886121233175,
        0.24894395549943876,
        -0.5619661570694007,
        0.644941348672219,
        0.8232934280725567,
        0.5129781946539117,
        -0.631687362046735,
        0.9556449691135519,
        0.3822138216788236,
        0.2584354850215369,
        0.3496090513392774,
        2.30309473976922,
        -0.15189604507885865,
        -0.06614881235446685,
        0.8763735207739042,
        0.8128662018297388,
        0.206271968711311,
        -0.9532231622952098,
        -0.22823873578537648,
        0.04574712260865341,
        -0.11166145713535514,
        0.8617591912144361,
        -0.3738596590014477,
        0.07057829667751227,
        0.7070234932188977,
        1.1070576574953797,
        0.3331220286058544,
        0.11419446009020018,
        0.36710510082450853,
        0.02269608980383937,
        0.9809060654824818,
        -0.7643327638948232
      ],
      [
        0.9634133842899778,
        -0.7291055356139391,
        2.3207821960434702,
        1.68980444040604,
        1.452888812382306,
        0.5062348062124791,
        0.13832144135919094,
        -0.23321419820782724,
        -0.9844581528187496,
        1.6302957525755148,
        -0.5691911479749056,
        0.694434465879639,
        1.9855592290985369,
        1.0437440249974752,
        -0.6539941432734677,
        1.5423756810608447,
        -1.91578140464773,
        -1.2351476961086303,
        0.17736135424648466,
        -1.1223151110710825,
        0.52553734242207,
        0.5185907517211109,
        1.0082782813646254,
        -0.5030271963682804
      ]
    ],
    "biases": [
      [
        -0.4054242025523948,
        -0.46689842789321573,
        -0.6538414464908451,
        -0.6241141665832379,
        -0.4765659220645781,
        -0.06733836767093807
      ],
      [
        -1.2756946171520913,
        -1.65820672305909,
        1.1962204053643353,
        0.9267133433590762
      ]
    ],
    "fitness_config": {
      "weights": {
        "progress_score": 50,
        "speed_score": 50,
        "completion_bonus": 50,
        "smooth_control": 50,
        "checkpoint_reward": 50,
        "collision_penalty": 50,
        "spin_penalty": 50,
        "stagnation_penalty": 50,
        "reverse_penalty": 50,
        "time_penalty": 50
      }
    },
    "map_difficulty": 1
  },
  {
    "record_id": "rec_1e007b9d",
    "record_name": "\u66f8",
    "saved_at": "2026-06-28T16:14:25.249803+00:00",
    "group_id": "8",
    "username": "wuwrh",
    "layer_sizes": [
      6,
      6,
      4
    ],
    "weights": [
      [
        -0.43571010381289804,
        -0.12385482573369443,
        -2.4401893234343452,
        -1.524484110239009,
        0.8755497885641197,
        0.44192621138506116,
        1.2100637602001019,
        0.5590802287568918,
        -0.5233677940206358,
        -0.5005003739212157,
        -1.0211369956636935,
        0.7383757619614619,
        -1.2635920522869453,
        -0.6304205606372717,
        0.6836990661308431,
        -0.9944976204270051,
        -0.23893373554562852,
        -0.509808101913462,
        -1.4302910160286872,
        -0.5289792010474567,
        0.14036878158216953,
        -0.4234569237340259,
        0.5621778744566267,
        -2.417574310706877,
        -1.123644424707735,
        -0.8045651133069042,
        1.095115470860435,
        -1.5652573971749413,
        1.3604183568918553,
        0.3343954725030976,
        -1.2702574561930169,
        -0.8698474429398029,
        0.04987726592622795,
        -1.9235669145644385,
        2.076338729432868,
        -0.7569023018015079
      ],
      [
        0.06674094473948637,
        0.2769283698042181,
        -0.4939577905649344,
        -0.03694696448594639,
        -1.4571996505310032,
        1.7533438564070922,
        0.6500480914557801,
        -1.5477855008355983,
        -0.4636944651479618,
        -0.9892050081910962,
        1.225539912609872,
        -0.17245589936738065,
        -0.1167581033870116,
        1.6407116947835356,
        1.4382952784166498,
        -0.20548649596095356,
        -0.7191210480584567,
        -0.05852003604106676,
        1.1145810563457887,
        -0.35782267749562385,
        0.39302808244626375,
        0.07364552066747457,
        -0.7947202405156047,
        0.038284603527788154
      ]
    ],
    "biases": [
      [
        1.7635218013388902,
        -0.4571576115251636,
        0.7914690229059488,
        0.2737921141339763,
        -0.08009920847505003,
        -0.9067725364114757
      ],
      [
        0.025033347372010364,
        -1.2843680054887392,
        -0.5812428403439283,
        0.6468788650993552
      ]
    ],
    "fitness_config": {
      "weights": {
        "progress_score": 50,
        "speed_score": 50,
        "completion_bonus": 50,
        "smooth_control": 50,
        "checkpoint_reward": 50,
        "collision_penalty": 50,
        "spin_penalty": 50,
        "stagnation_penalty": 50,
        "reverse_penalty": 50,
        "time_penalty": 50
      }
    },
    "map_difficulty": 1
  }
]